{
  "type": "LSTM",
  "options": {
    "inputSize": 31,
    "inputRange": 31,
    "hiddenLayers": [
      20,
      20
    ],
    "outputSize": 31,
    "decayRate": 0.999,
    "smoothEps": 1e-8,
    "regc": 0.000001,
    "clipval": 5,
    "maxPredictionLength": 100,
    "dataFormatter": {
      "values": [
        "my unit test failed",
        "software",
        "tried the program, but it was buggy",
        "i need a new power supply",
        "hardware",
        "the drive has a 2TB capacity",
        "unit-tests",
        "program",
        "power supply",
        "drive",
        "it needs more memory",
        "code",
        "i found some bugs in the code",
        "i swapped the memory",
        "i tested the code",
        "i love computers",
        "programming",
        "i broke my pc",
        "computer",
        "buy me a laptop",
        "i love to play games"
      ],
      "indexTable": {
        "2": 22,
        "m": 0,
        "y": 1,
        " ": 2,
        "u": 3,
        "n": 4,
        "i": 5,
        "t": 6,
        "e": 7,
        "s": 8,
        "f": 9,
        "a": 10,
        "l": 11,
        "d": 12,
        "o": 13,
        "w": 14,
        "r": 15,
        "h": 16,
        "p": 17,
        "g": 18,
        ",": 19,
        "b": 20,
        "v": 21,
        "T": 23,
        "B": 24,
        "c": 25,
        "-": 26,
        "k": 27,
        "stop-input": 28,
        "start-output": 29,
        "unrecognized": 30
      },
      "characterTable": {
        "0": "m",
        "1": "y",
        "2": " ",
        "3": "u",
        "4": "n",
        "5": "i",
        "6": "t",
        "7": "e",
        "8": "s",
        "9": "f",
        "10": "a",
        "11": "l",
        "12": "d",
        "13": "o",
        "14": "w",
        "15": "r",
        "16": "h",
        "17": "p",
        "18": "g",
        "19": ",",
        "20": "b",
        "21": "v",
        "22": "2",
        "23": "T",
        "24": "B",
        "25": "c",
        "26": "-",
        "27": "k",
        "28": null,
        "29": null,
        "30": null
      },
      "characters": [
        "m",
        "y",
        " ",
        "u",
        "n",
        "i",
        "t",
        "e",
        "s",
        "f",
        "a",
        "l",
        "d",
        "o",
        "w",
        "r",
        "h",
        "p",
        "g",
        ",",
        "b",
        "v",
        "2",
        "T",
        "B",
        "c",
        "-",
        "k",
        "stop-input",
        "start-output",
        "unrecognized"
      ],
      "specialIndexes": [
        28,
        29,
        30
      ]
    }
  },
  "input": {
    "rows": 32,
    "columns": 31,
    "weights": {
      "0": 1.6295239925384521,
      "1": -1.2081550359725952,
      "2": -0.8145143985748291,
      "3": 2.8506827354431152,
      "4": 0.06445533782243729,
      "5": 1.4221527576446533,
      "6": -2.7624807357788086,
      "7": -0.7705830335617065,
      "8": 2.2862606048583984,
      "9": 0.9813040494918823,
      "10": -0.7504242062568665,
      "11": 1.3982211351394653,
      "12": 1.0882108211517334,
      "13": -2.8328070640563965,
      "14": -0.3725773096084595,
      "15": -0.6212846636772156,
      "16": -1.470070719718933,
      "17": -2.444587469100952,
      "18": 0.8649535179138184,
      "19": 1.502201795578003,
      "20": 2.6414504051208496,
      "21": 0.9882012605667114,
      "22": 0.23783442378044128,
      "23": -0.3127404451370239,
      "24": 0.6155019998550415,
      "25": 1.312806248664856,
      "26": -0.5478289127349854,
      "27": -0.6461226940155029,
      "28": -0.4517994821071625,
      "29": 0.32444190979003906,
      "30": -1.3408585786819458,
      "31": 3.2156457901000977,
      "32": -0.428641676902771,
      "33": -1.1706438064575195,
      "34": -0.23584501445293427,
      "35": -0.8013636469841003,
      "36": -0.5661218166351318,
      "37": -2.6687607765197754,
      "38": 2.0039849281311035,
      "39": 1.3372645378112793,
      "40": 3.5067405700683594,
      "41": -0.519325852394104,
      "42": -0.9469528794288635,
      "43": -0.31694740056991577,
      "44": -1.383508324623108,
      "45": 0.573059618473053,
      "46": 2.1969566345214844,
      "47": 1.6050692796707153,
      "48": -3.259594202041626,
      "49": -1.431477665901184,
      "50": 0.6099393963813782,
      "51": 1.8840630054473877,
      "52": 0.234917551279068,
      "53": 1.1034479141235352,
      "54": 0.4371059238910675,
      "55": -1.8881206512451172,
      "56": 0.20433518290519714,
      "57": -0.002281520515680313,
      "58": 0.3170905113220215,
      "59": -1.7021325826644897,
      "60": 2.960979700088501,
      "61": -4.46781063079834,
      "62": 4.146134853363037,
      "63": 0.12904974818229675,
      "64": 1.4435219764709473,
      "65": 1.0424920320510864,
      "66": 0.8571758270263672,
      "67": 0.8130534887313843,
      "68": -1.6844570636749268,
      "69": -0.4268079102039337,
      "70": 0.9202408790588379,
      "71": 2.839409828186035,
      "72": 2.8646583557128906,
      "73": -0.15934142470359802,
      "74": 1.1102900505065918,
      "75": -5.214076995849609,
      "76": 3.176732063293457,
      "77": 0.7858826518058777,
      "78": -2.4543333053588867,
      "79": -0.36712390184402466,
      "80": -1.4814437627792358,
      "81": 2.81839656829834,
      "82": 2.7792718410491943,
      "83": 1.2291468381881714,
      "84": -3.3004424571990967,
      "85": -2.9713776111602783,
      "86": 0.4711345136165619,
      "87": 0.40047070384025574,
      "88": 3.1760358810424805,
      "89": -0.4095296859741211,
      "90": -3.565248966217041,
      "91": -0.7046763896942139,
      "92": -4.132801532745361,
      "93": 0.5028319954872131,
      "94": 3.226720094680786,
      "95": -0.5631137490272522,
      "96": -0.7986449599266052,
      "97": 0.8669678568840027,
      "98": -3.2290685176849365,
      "99": 1.3952828645706177,
      "100": 3.7810521125793457,
      "101": -1.0871715545654297,
      "102": -2.1638343334198,
      "103": -0.1414775550365448,
      "104": 0.6082784533500671,
      "105": 0.05003281310200691,
      "106": 1.8717237710952759,
      "107": -1.2750166654586792,
      "108": -0.08995821326971054,
      "109": 0.39352941513061523,
      "110": 0.6869317889213562,
      "111": 0.08383706212043762,
      "112": -1.7614432573318481,
      "113": -1.315069556236267,
      "114": -2.490943193435669,
      "115": -0.44913771748542786,
      "116": -0.6851522326469421,
      "117": 0.4194379150867462,
      "118": -0.7018043398857117,
      "119": -0.3807089030742645,
      "120": -0.09337056428194046,
      "121": 0.9214751720428467,
      "122": 1.344889760017395,
      "123": 1.549627661705017,
      "124": -0.17483727633953094,
      "125": -0.20834270119667053,
      "126": 0.05358860641717911,
      "127": 3.7574543952941895,
      "128": -2.6448023319244385,
      "129": 3.008326292037964,
      "130": -3.190229654312134,
      "131": 0.11996188014745712,
      "132": 3.1407783031463623,
      "133": 2.7151801586151123,
      "134": -1.251922845840454,
      "135": 2.73410964012146,
      "136": -0.7001796960830688,
      "137": -3.6425676345825195,
      "138": 3.9199249744415283,
      "139": -0.0187503881752491,
      "140": 1.6269540786743164,
      "141": -2.4198827743530273,
      "142": -0.6725870370864868,
      "143": 3.9289181232452393,
      "144": 4.232954502105713,
      "145": 0.10091325640678406,
      "146": 0.7670758962631226,
      "147": 2.907769203186035,
      "148": -0.18348807096481323,
      "149": 4.46591854095459,
      "150": -2.958775043487549,
      "151": -1.8338056802749634,
      "152": 2.488774538040161,
      "153": -0.19020920991897583,
      "154": -1.4368561506271362,
      "155": 3.391220808029175,
      "156": 1.4317063093185425,
      "157": -4.585974216461182,
      "158": 6.055806636810303,
      "159": -1.0619055032730103,
      "160": 2.587754726409912,
      "161": -0.06002584472298622,
      "162": -1.247110366821289,
      "163": 3.1800575256347656,
      "164": -1.6437220573425293,
      "165": 2.8392999172210693,
      "166": 4.879115581512451,
      "167": 5.60255765914917,
      "168": 0.897218644618988,
      "169": -1.1268925666809082,
      "170": -5.574614524841309,
      "171": -4.960733890533447,
      "172": -4.483151912689209,
      "173": 2.56882643699646,
      "174": -2.1831178665161133,
      "175": 0.11695940792560577,
      "176": 1.3027528524398804,
      "177": 2.4101552963256836,
      "178": 0.6046172976493835,
      "179": -0.8824246525764465,
      "180": 1.8555991649627686,
      "181": 0.6791213154792786,
      "182": 0.474827378988266,
      "183": -0.8965922594070435,
      "184": -0.34414342045783997,
      "185": 2.049201250076294,
      "186": 0.8373712301254272,
      "187": 2.3275249004364014,
      "188": 0.5769879817962646,
      "189": -1.793250560760498,
      "190": 0.2039184868335724,
      "191": -1.7679612636566162,
      "192": -1.2229007482528687,
      "193": -0.6598224639892578,
      "194": 0.5846679210662842,
      "195": -3.094593048095703,
      "196": -2.2560012340545654,
      "197": 0.6043547987937927,
      "198": 0.2885746359825134,
      "199": 2.3269472122192383,
      "200": -2.113673210144043,
      "201": 0.8608478903770447,
      "202": 0.8045986890792847,
      "203": -0.8472095727920532,
      "204": -0.05157114565372467,
      "205": -0.4994414150714874,
      "206": -3.52596378326416,
      "207": 0.45964333415031433,
      "208": 1.8300981521606445,
      "209": -0.30183425545692444,
      "210": -1.4827724695205688,
      "211": -0.40467220544815063,
      "212": -1.2490577697753906,
      "213": 2.370364189147949,
      "214": 0.1899832934141159,
      "215": 2.111576795578003,
      "216": 2.5398218631744385,
      "217": -2.459601879119873,
      "218": 0.48822200298309326,
      "219": 1.805938959121704,
      "220": -3.495258092880249,
      "221": 1.199869990348816,
      "222": 0.6354028582572937,
      "223": 0.7586424946784973,
      "224": 2.060424566268921,
      "225": -2.9304282665252686,
      "226": 0.20741547644138336,
      "227": 2.121539354324341,
      "228": 1.0452485084533691,
      "229": -2.1210830211639404,
      "230": -0.5339541435241699,
      "231": 3.250225782394409,
      "232": 0.40924206376075745,
      "233": 1.5347142219543457,
      "234": 2.0448741912841797,
      "235": -0.3934558928012848,
      "236": -0.49887025356292725,
      "237": 0.3041996955871582,
      "238": -1.4065443277359009,
      "239": -2.503082275390625,
      "240": -0.07206391543149948,
      "241": -0.10541584342718124,
      "242": 1.227814793586731,
      "243": 1.8025835752487183,
      "244": -0.9376725554466248,
      "245": 1.8808180093765259,
      "246": -1.0908653736114502,
      "247": -1.4284800291061401,
      "248": -0.8757949471473694,
      "249": -0.2109590321779251,
      "250": -0.1750175654888153,
      "251": 0.6223278045654297,
      "252": 2.8615291118621826,
      "253": 0.14761818945407867,
      "254": 0.15130427479743958,
      "255": 1.55995512008667,
      "256": -0.7250515222549438,
      "257": 0.018973054364323616,
      "258": -0.5309556126594543,
      "259": -0.3159506320953369,
      "260": 1.4037036895751953,
      "261": 0.739196240901947,
      "262": -2.1169300079345703,
      "263": 0.31547659635543823,
      "264": 2.3359105587005615,
      "265": 0.49632272124290466,
      "266": -0.5629230737686157,
      "267": -0.13649317622184753,
      "268": 0.7729178071022034,
      "269": -1.916513204574585,
      "270": -0.02617086097598076,
      "271": -0.935474693775177,
      "272": 0.8084556460380554,
      "273": -0.9443477988243103,
      "274": -0.4485630989074707,
      "275": -0.2243652641773224,
      "276": 0.6045218706130981,
      "277": -2.336268663406372,
      "278": -0.46257635951042175,
      "279": -0.8190205693244934,
      "280": -0.7455928921699524,
      "281": -0.7181057333946228,
      "282": -0.5844665169715881,
      "283": 0.019001059234142303,
      "284": -0.18246230483055115,
      "285": -0.7725617289543152,
      "286": -0.1580582708120346,
      "287": 1.1993802785873413,
      "288": -0.025610806420445442,
      "289": -1.381087064743042,
      "290": -0.07915791869163513,
      "291": 1.6944483518600464,
      "292": -0.6405642032623291,
      "293": 0.07808607816696167,
      "294": 0.3371378183364868,
      "295": -0.7647812962532043,
      "296": -1.4436618089675903,
      "297": -0.5418533086776733,
      "298": -0.6281784772872925,
      "299": 1.2039666175842285,
      "300": 0.4704865515232086,
      "301": -0.8621958494186401,
      "302": -0.7438527345657349,
      "303": 2.119962692260742,
      "304": -0.23699051141738892,
      "305": 0.3474615216255188,
      "306": -4.740009307861328,
      "307": 2.343317985534668,
      "308": 0.24004299938678741,
      "309": -0.8073200583457947,
      "310": -1.6106350421905518,
      "311": 1.4138736724853516,
      "312": 1.959788203239441,
      "313": -2.2777457237243652,
      "314": -0.21480585634708405,
      "315": -1.2732778787612915,
      "316": 0.6905826330184937,
      "317": 0.379605233669281,
      "318": -1.3090771436691284,
      "319": -2.2397358417510986,
      "320": -1.0257675647735596,
      "321": -1.7896844148635864,
      "322": 1.1402848958969116,
      "323": 4.837059497833252,
      "324": -1.2917699813842773,
      "325": -0.2950923442840576,
      "326": -0.6764481067657471,
      "327": 0.8243297338485718,
      "328": -2.4561407566070557,
      "329": -2.5222222805023193,
      "330": -2.039184331893921,
      "331": -1.273561954498291,
      "332": -0.3090529143810272,
      "333": -1.1524252891540527,
      "334": 1.9125012159347534,
      "335": 0.26177412271499634,
      "336": 0.7079660296440125,
      "337": -1.9406087398529053,
      "338": 1.8432888984680176,
      "339": 0.45492100715637207,
      "340": 0.6578260660171509,
      "341": -0.5548800230026245,
      "342": 1.0896273851394653,
      "343": -1.9542945623397827,
      "344": -0.022734029218554497,
      "345": 1.1343010663986206,
      "346": -1.3238834142684937,
      "347": -0.5515249967575073,
      "348": 0.26951906085014343,
      "349": -2.077542781829834,
      "350": -0.9091171026229858,
      "351": -1.6410177946090698,
      "352": -0.7598834037780762,
      "353": 0.22946099936962128,
      "354": -0.757332980632782,
      "355": -0.2793576717376709,
      "356": 0.36515000462532043,
      "357": 0.6950645446777344,
      "358": 1.658347487449646,
      "359": 0.5957943797111511,
      "360": -1.7205748558044434,
      "361": -1.8685636520385742,
      "362": -0.11317731440067291,
      "363": 0.015156782232224941,
      "364": -1.4408531188964844,
      "365": -0.9539920687675476,
      "366": -1.1251360177993774,
      "367": -0.5835500955581665,
      "368": -1.7486823797225952,
      "369": 1.4790568351745605,
      "370": -0.34599459171295166,
      "371": -0.05367282032966614,
      "372": 5.5984883308410645,
      "373": -3.690314292907715,
      "374": -4.113489151000977,
      "375": 3.0895538330078125,
      "376": -1.0517374277114868,
      "377": 1.6306586265563965,
      "378": -8.846943855285645,
      "379": 3.183809280395508,
      "380": 6.397880554199219,
      "381": 5.122564792633057,
      "382": 0.35105931758880615,
      "383": 0.7986307144165039,
      "384": 2.4607980251312256,
      "385": -4.763765335083008,
      "386": -2.224928379058838,
      "387": -0.8666117191314697,
      "388": 3.304002046585083,
      "389": -7.184215545654297,
      "390": 0.4982440173625946,
      "391": 2.6759026050567627,
      "392": 3.3808133602142334,
      "393": 0.6709831357002258,
      "394": -0.004879141226410866,
      "395": 0.15609006583690643,
      "396": -0.21015097200870514,
      "397": 0.4779515564441681,
      "398": -1.8047420978546143,
      "399": -0.49409037828445435,
      "400": -3.4062037467956543,
      "401": 2.2740418910980225,
      "402": -3.4344656467437744,
      "403": 1.1335792541503906,
      "404": -1.2302578687667847,
      "405": 1.2775516510009766,
      "406": -3.172287940979004,
      "407": 2.3535091876983643,
      "408": 1.0692280530929565,
      "409": 0.8748708367347717,
      "410": 0.6931949853897095,
      "411": -2.4928555488586426,
      "412": -1.4604201316833496,
      "413": 2.618316888809204,
      "414": 0.003062979783862829,
      "415": -2.0374372005462646,
      "416": 1.3943604230880737,
      "417": 0.5110723376274109,
      "418": 1.6800693273544312,
      "419": 1.426109790802002,
      "420": 1.2873698472976685,
      "421": -0.47065237164497375,
      "422": 0.42583930492401123,
      "423": -0.14096835255622864,
      "424": -2.594510316848755,
      "425": -1.3370673656463623,
      "426": -2.6220922470092773,
      "427": -0.6613611578941345,
      "428": -0.37887951731681824,
      "429": 3.392157793045044,
      "430": 0.3936338722705841,
      "431": 0.748269259929657,
      "432": 1.1059021949768066,
      "433": 1.2655829191207886,
      "434": 0.49020177125930786,
      "435": 0.681505024433136,
      "436": -1.602414846420288,
      "437": 0.7265094518661499,
      "438": 4.277954578399658,
      "439": -0.33956655859947205,
      "440": -0.13569584488868713,
      "441": -0.13980236649513245,
      "442": -0.9722288846969604,
      "443": 0.16708168387413025,
      "444": 1.9349172115325928,
      "445": 1.064819097518921,
      "446": 1.274405837059021,
      "447": 1.0380192995071411,
      "448": -1.3717306852340698,
      "449": -0.5317655205726624,
      "450": 0.591521680355072,
      "451": 0.5172874927520752,
      "452": 1.0151547193527222,
      "453": -0.2814464271068573,
      "454": 0.14519207179546356,
      "455": -0.6983139514923096,
      "456": -1.0772074460983276,
      "457": -2.030703544616699,
      "458": 0.8207476139068604,
      "459": -0.7634674310684204,
      "460": 0.8212606906890869,
      "461": -0.925997257232666,
      "462": 3.1313936710357666,
      "463": -1.255839228630066,
      "464": 0.2130977213382721,
      "465": -6.666010856628418,
      "466": 0.3978261649608612,
      "467": 0.5584100484848022,
      "468": -3.163283109664917,
      "469": 1.375449776649475,
      "470": -1.1484214067459106,
      "471": 1.1298210620880127,
      "472": -2.2878916263580322,
      "473": -0.671347439289093,
      "474": 1.1321642398834229,
      "475": -1.551530361175537,
      "476": -1.0044087171554565,
      "477": -0.2770632207393646,
      "478": 0.670894980430603,
      "479": 1.9858012199401855,
      "480": 0.7284235954284668,
      "481": 2.220543146133423,
      "482": 1.4430899620056152,
      "483": 1.6638457775115967,
      "484": -2.40159273147583,
      "485": 1.941453456878662,
      "486": 2.1894125938415527,
      "487": 0.8450300693511963,
      "488": 0.31827983260154724,
      "489": -0.261600136756897,
      "490": 1.8750879764556885,
      "491": -0.1887248307466507,
      "492": -0.4966760575771332,
      "493": 2.457214593887329,
      "494": -2.7567780017852783,
      "495": -0.3041332960128784,
      "496": 0.6294675469398499,
      "497": 0.08642144501209259,
      "498": -0.41112321615219116,
      "499": -1.091631293296814,
      "500": -0.5291458964347839,
      "501": 0.730985701084137,
      "502": -0.36210712790489197,
      "503": -0.5476886034011841,
      "504": 0.42462554574012756,
      "505": 0.3659851551055908,
      "506": 1.08225417137146,
      "507": 1.3136013746261597,
      "508": 1.988763689994812,
      "509": 0.12359633296728134,
      "510": 0.7203872799873352,
      "511": -0.6158689260482788,
      "512": -0.8260846138000488,
      "513": -0.6105079054832458,
      "514": 1.7235342264175415,
      "515": 1.58558189868927,
      "516": -0.3104799687862396,
      "517": 0.21153593063354492,
      "518": 1.0143108367919922,
      "519": 0.558144211769104,
      "520": -0.7642175555229187,
      "521": 1.2063097953796387,
      "522": -0.48678556084632874,
      "523": 0.7404100298881531,
      "524": -0.3230040669441223,
      "525": 0.3779630959033966,
      "526": 0.15616987645626068,
      "527": -1.9074952602386475,
      "528": 3.425804615020752,
      "529": 0.9817457795143127,
      "530": -2.502084255218506,
      "531": 2.826287031173706,
      "532": -4.315562725067139,
      "533": 3.771305561065674,
      "534": -0.13681288063526154,
      "535": -1.3431298732757568,
      "536": -0.9323121309280396,
      "537": 1.5103093385696411,
      "538": 0.14542298018932343,
      "539": -3.404611587524414,
      "540": 0.12376097589731216,
      "541": -1.3413697481155396,
      "542": 2.5165812969207764,
      "543": 0.17957362532615662,
      "544": 1.0708860158920288,
      "545": -1.873401165008545,
      "546": -2.909903049468994,
      "547": -0.593133270740509,
      "548": 1.0080780982971191,
      "549": -0.9324213862419128,
      "550": -1.6755220890045166,
      "551": -0.048090860247612,
      "552": -0.3780874013900757,
      "553": 2.117828607559204,
      "554": -1.8368624448776245,
      "555": 2.759951114654541,
      "556": 3.385606050491333,
      "557": -0.5959864258766174,
      "558": 0.2767237722873688,
      "559": -0.17110055685043335,
      "560": -3.6022512912750244,
      "561": -4.930781364440918,
      "562": -1.282981514930725,
      "563": -5.409603595733643,
      "564": -0.14372943341732025,
      "565": -0.2171126753091812,
      "566": -2.3580873012542725,
      "567": 1.4986294507980347,
      "568": 1.8657848834991455,
      "569": 0.231155127286911,
      "570": 0.038053594529628754,
      "571": 0.2427351474761963,
      "572": 0.4057832956314087,
      "573": 0.884423017501831,
      "574": -0.19280138611793518,
      "575": 1.505707859992981,
      "576": -0.49894586205482483,
      "577": 1.0900604724884033,
      "578": -3.405193567276001,
      "579": 1.2581791877746582,
      "580": -0.0061042578890919685,
      "581": 3.823918104171753,
      "582": 0.07064022123813629,
      "583": -0.6018737554550171,
      "584": -0.50494384765625,
      "585": -0.37416231632232666,
      "586": -1.2054928541183472,
      "587": -1.557178020477295,
      "588": -0.7877367734909058,
      "589": -0.8126633763313293,
      "590": 1.3246259689331055,
      "591": -1.6487491130828857,
      "592": -2.976452112197876,
      "593": -0.42136356234550476,
      "594": -0.07295786589384079,
      "595": 6.454412460327148,
      "596": 1.62510347366333,
      "597": -6.163929462432861,
      "598": -3.4055776596069336,
      "599": 4.078622817993164,
      "600": 1.8307199478149414,
      "601": 1.3846538066864014,
      "602": 2.958693027496338,
      "603": -0.441558837890625,
      "604": -2.849384307861328,
      "605": -2.3800594806671143,
      "606": 4.371666431427002,
      "607": 0.0011367236729711294,
      "608": -2.8017477989196777,
      "609": -2.308441638946533,
      "610": -1.517465353012085,
      "611": 0.7976951003074646,
      "612": -2.1924731731414795,
      "613": 2.1671254634857178,
      "614": -0.41243648529052734,
      "615": 4.466454029083252,
      "616": -0.5158556699752808,
      "617": -2.8404994010925293,
      "618": -2.2508602142333984,
      "619": 3.084073305130005,
      "620": -3.1372792720794678,
      "621": 7.466679573059082,
      "622": 2.335336923599243,
      "623": -3.746983051300049,
      "624": -16.36794090270996,
      "625": -4.599714756011963,
      "626": 1.824891448020935,
      "627": -5.453461170196533,
      "628": 2.1880476474761963,
      "629": -4.663453102111816,
      "630": 1.7054479122161865,
      "631": -7.220551013946533,
      "632": -0.5662369728088379,
      "633": 3.5960464477539062,
      "634": -5.010443210601807,
      "635": 9.523148536682129,
      "636": 6.491825580596924,
      "637": -5.6445770263671875,
      "638": -3.391272783279419,
      "639": -0.23917579650878906,
      "640": -7.833374500274658,
      "641": 14.85681438446045,
      "642": 3.6661157608032227,
      "643": 12.662284851074219,
      "644": -4.75018835067749,
      "645": -1.2998406887054443,
      "646": -1.9602961540222168,
      "647": 8.630769729614258,
      "648": -0.15166470408439636,
      "649": 8.514266014099121,
      "650": 0.9169219136238098,
      "651": 5.105070114135742,
      "652": -4.015334129333496,
      "653": -1.9319865703582764,
      "654": 1.0580404996871948,
      "655": -2.2692322731018066,
      "656": 5.14413595199585,
      "657": 1.9475533962249756,
      "658": -0.9313790798187256,
      "659": 0.4421355426311493,
      "660": -4.905960559844971,
      "661": 1.602095127105713,
      "662": 1.854856014251709,
      "663": 2.020535469055176,
      "664": 2.382038116455078,
      "665": -2.490417242050171,
      "666": -4.86983585357666,
      "667": -2.8338141441345215,
      "668": -2.4200541973114014,
      "669": 5.843602180480957,
      "670": 4.354639530181885,
      "671": -5.561442852020264,
      "672": 1.3742419481277466,
      "673": 3.1426260471343994,
      "674": 1.2177879810333252,
      "675": -2.258686065673828,
      "676": -1.3354408740997314,
      "677": -0.24772118031978607,
      "678": 1.1390894651412964,
      "679": -6.286397933959961,
      "680": -3.7940008640289307,
      "681": 2.4002959728240967,
      "682": -1.0179240703582764,
      "683": -0.05796191468834877,
      "684": 4.096219062805176,
      "685": 4.798940181732178,
      "686": 3.863460063934326,
      "687": 3.9873969554901123,
      "688": -3.982593059539795,
      "689": -1.4248088598251343,
      "690": -2.4264345169067383,
      "691": 3.238600015640259,
      "692": 0.334689199924469,
      "693": -2.777073383331299,
      "694": -0.8033885359764099,
      "695": -2.7541542053222656,
      "696": -10.66429615020752,
      "697": 0.6493344902992249,
      "698": 4.523631572723389,
      "699": 1.376684546470642,
      "700": -4.566528797149658,
      "701": 1.5463171005249023,
      "702": 2.6660890579223633,
      "703": 1.2205417156219482,
      "704": -0.3558652400970459,
      "705": -3.547884225845337,
      "706": 2.264362335205078,
      "707": -2.8222708702087402,
      "708": 1.8503867387771606,
      "709": 1.463692307472229,
      "710": -5.846922397613525,
      "711": -2.0293354988098145,
      "712": -5.304431438446045,
      "713": 8.246853828430176,
      "714": -2.53813099861145,
      "715": 3.394195318222046,
      "716": 6.431649684906006,
      "717": 0.8492807149887085,
      "718": 8.451489448547363,
      "719": -0.8620728850364685,
      "720": -2.813277244567871,
      "721": -1.3078733682632446,
      "722": -4.207693576812744,
      "723": 1.7978588342666626,
      "724": -10.337006568908691,
      "725": -1.8651889562606812,
      "726": -2.446221113204956,
      "727": -12.287861824035645,
      "728": 3.254542827606201,
      "729": -1.1425590515136719,
      "730": 3.0802102088928223,
      "731": -0.2860969305038452,
      "732": -0.7377530932426453,
      "733": -2.9945316314697266,
      "734": -4.0140862464904785,
      "735": 12.190217018127441,
      "736": 1.779885172843933,
      "737": -14.028658866882324,
      "738": -7.23738956451416,
      "739": -6.890399932861328,
      "740": 14.233917236328125,
      "741": 0.5024644732475281,
      "742": -2.4094276428222656,
      "743": -1.3183995485305786,
      "744": -1.0663731098175049,
      "745": -20.215070724487305,
      "746": 0.7990360260009766,
      "747": 5.909264087677002,
      "748": -1.0211867094039917,
      "749": 9.19957447052002,
      "750": 6.30294942855835,
      "751": -1.355744481086731,
      "752": 5.973702907562256,
      "753": -1.7800854444503784,
      "754": 0.552166759967804,
      "755": 0.25805148482322693,
      "756": -11.529964447021484,
      "757": 14.715348243713379,
      "758": -7.840127944946289,
      "759": 3.4838783740997314,
      "760": -4.173690319061279,
      "761": 1.0514508485794067,
      "762": -4.765411376953125,
      "763": -3.3430325984954834,
      "764": 0.07164261490106583,
      "765": -9.202674865722656,
      "766": 4.85622501373291,
      "767": 0.526445209980011,
      "768": 1.4146934747695923,
      "769": -10.739724159240723,
      "770": -7.767860412597656,
      "771": 7.83768892288208,
      "772": 1.9664356708526611,
      "773": 5.454507827758789,
      "774": -3.4732205867767334,
      "775": -10.140389442443848,
      "776": 3.738865613937378,
      "777": -4.145874500274658,
      "778": -10.560247421264648,
      "779": 9.64261245727539,
      "780": -1.6111805438995361,
      "781": -0.9436339139938354,
      "782": 3.320033073425293,
      "783": -2.255605936050415,
      "784": -10.507226943969727,
      "785": 5.721842288970947,
      "786": 5.184835433959961,
      "787": 15.144054412841797,
      "788": 0.3498230576515198,
      "789": -2.8151824474334717,
      "790": -4.712685585021973,
      "791": 15.30627155303955,
      "792": -0.23579657077789307,
      "793": -2.334017753601074,
      "794": -3.905667304992676,
      "795": -8.269186019897461,
      "796": 2.2085537910461426,
      "797": -4.858707904815674,
      "798": -5.85338830947876,
      "799": 12.251148223876953,
      "800": 3.9314167499542236,
      "801": -1.559556007385254,
      "802": -17.013818740844727,
      "803": 12.024796485900879,
      "804": -0.6972984075546265,
      "805": 7.399916648864746,
      "806": 5.222476959228516,
      "807": 0.6596403121948242,
      "808": -2.7818665504455566,
      "809": 0.37433966994285583,
      "810": 1.0043514966964722,
      "811": 0.08261100947856903,
      "812": -5.960450172424316,
      "813": -2.3646531105041504,
      "814": -0.17125950753688812,
      "815": 3.5306997299194336,
      "816": 5.263657093048096,
      "817": 4.584165096282959,
      "818": 2.9699225425720215,
      "819": -4.383337497711182,
      "820": -3.090407609939575,
      "821": -3.227515459060669,
      "822": -1.1531565189361572,
      "823": -0.5673696994781494,
      "824": -0.43406766653060913,
      "825": 1.3482989072799683,
      "826": -3.4587302207946777,
      "827": 2.5718114376068115,
      "828": -8.920721054077148,
      "829": -0.0880606472492218,
      "830": 2.2737479209899902,
      "831": -2.8306665420532227,
      "832": 2.7080931663513184,
      "833": -5.9058332443237305,
      "834": -0.45031988620758057,
      "835": 0.9496951103210449,
      "836": -0.8600174188613892,
      "837": -0.32533708214759827,
      "838": 11.01632308959961,
      "839": 8.418794631958008,
      "840": -10.351814270019531,
      "841": 1.034886360168457,
      "842": -8.67151927947998,
      "843": 9.913080215454102,
      "844": -10.826790809631348,
      "845": -4.999639511108398,
      "846": 2.942791700363159,
      "847": -7.5250020027160645,
      "848": -9.197113037109375,
      "849": -3.566148519515991,
      "850": -6.128972053527832,
      "851": -3.7830724716186523,
      "852": 4.895148277282715,
      "853": -8.22424602508545,
      "854": 4.906576633453369,
      "855": -6.852305889129639,
      "856": -8.229022979736328,
      "857": -5.237546443939209,
      "858": 11.71174144744873,
      "859": 5.065344333648682,
      "860": 3.1697912216186523,
      "861": -2.7843146324157715,
      "862": -5.816576957702637,
      "863": -7.592418193817139,
      "864": -0.24704447388648987,
      "865": 5.80363655090332,
      "866": 14.108283042907715,
      "867": -2.7354252338409424,
      "868": 0.8000622987747192,
      "869": 6.826247215270996,
      "870": -4.904642105102539,
      "871": 3.8160271644592285,
      "872": 10.413187026977539,
      "873": -0.8122094869613647,
      "874": 8.978397369384766,
      "875": -1.7757856845855713,
      "876": -3.352627992630005,
      "877": -5.062401294708252,
      "878": 14.960665702819824,
      "879": 7.027469158172607,
      "880": 14.321331024169922,
      "881": 1.646841049194336,
      "882": 2.426311492919922,
      "883": -4.761197090148926,
      "884": 3.040815830230713,
      "885": 1.1458518505096436,
      "886": 2.333688497543335,
      "887": -10.97718334197998,
      "888": 3.3198537826538086,
      "889": -1.4293363094329834,
      "890": -4.194293975830078,
      "891": -9.526857376098633,
      "892": 4.511716842651367,
      "893": 11.46591567993164,
      "894": 14.04819107055664,
      "895": 9.218865394592285,
      "896": 0.587673008441925,
      "897": 1.241812825202942,
      "898": 7.864655017852783,
      "899": -0.1726236343383789,
      "900": -0.6869471073150635,
      "901": -1.2392964363098145,
      "902": 0.7853456139564514,
      "903": 0.7206162214279175,
      "904": 0.7881219983100891,
      "905": -0.492755264043808,
      "906": 2.979400634765625,
      "907": -1.5695147514343262,
      "908": 1.3468767404556274,
      "909": 0.518852949142456,
      "910": -0.09627237915992737,
      "911": -2.535491466522217,
      "912": -0.08826704323291779,
      "913": 2.2211086750030518,
      "914": 0.4483436644077301,
      "915": 0.16551771759986877,
      "916": 2.1353964805603027,
      "917": 0.5245715379714966,
      "918": 0.2997375428676605,
      "919": 0.6929253935813904,
      "920": -2.924372434616089,
      "921": -2.1049892902374268,
      "922": -0.5323821902275085,
      "923": 1.4595084190368652,
      "924": -1.5304373502731323,
      "925": 0.3087667226791382,
      "926": -3.285954713821411,
      "927": 1.654483675956726,
      "928": -2.1951446533203125,
      "929": -0.7909675240516663,
      "930": 1.2900246381759644,
      "931": -0.3554723560810089,
      "932": 3.4184107780456543,
      "933": -1.4389761686325073,
      "934": 0.19173887372016907,
      "935": -1.3979203701019287,
      "936": -0.7078753709793091,
      "937": -0.5479728579521179,
      "938": -0.513888418674469,
      "939": 0.30111199617385864,
      "940": -0.26938921213150024,
      "941": -2.030393362045288,
      "942": 0.6787855625152588,
      "943": -0.025451229885220528,
      "944": -0.8455712795257568,
      "945": 1.7967619895935059,
      "946": -0.2531183958053589,
      "947": -0.529600977897644,
      "948": -0.4037046432495117,
      "949": -1.7158594131469727,
      "950": 1.054580807685852,
      "951": 0.9744760990142822,
      "952": -0.8711020350456238,
      "953": -1.5253390073776245,
      "954": 0.48320913314819336,
      "955": 0.11620967835187912,
      "956": 0.8267653584480286,
      "957": 0.663388729095459,
      "958": -0.10250604897737503,
      "959": 0.10154226422309875,
      "960": -0.7633883357048035,
      "961": 0.011659900657832623,
      "962": 0.0594802051782608,
      "963": -0.05103020370006561,
      "964": 0.052387259900569916,
      "965": -0.028712362051010132,
      "966": 0.04484429955482483,
      "967": 0.061221152544021606,
      "968": -0.04924451559782028,
      "969": -0.06063099205493927,
      "970": 0.003779483027756214,
      "971": 0.06956817954778671,
      "972": -0.04302675649523735,
      "973": -0.029765993356704712,
      "974": -0.016460008919239044,
      "975": 0.06337291747331619,
      "976": 0.037660740315914154,
      "977": 0.06646493822336197,
      "978": -0.05705104023218155,
      "979": 0.04876605421304703,
      "980": -0.05186965689063072,
      "981": 0.06996314972639084,
      "982": 0.0008530399645678699,
      "983": -0.06316448003053665,
      "984": 0.042957551777362823,
      "985": 0.015140313655138016,
      "986": 0.04869569092988968,
      "987": -0.030058037489652634,
      "988": -0.011165836825966835,
      "989": 0.04111117124557495,
      "990": 0.05053354799747467,
      "991": 0.016755754128098488
    }
  },
  "hiddenLayers": [
    {
      "inputMatrix": {
        "rows": 20,
        "columns": 31,
        "weights": {
          "0": 0.2553548216819763,
          "1": 0.2530158758163452,
          "2": -2.6710197925567627,
          "3": 0.561987578868866,
          "4": -0.9167069792747498,
          "5": -0.6389482617378235,
          "6": -1.7071102857589722,
          "7": -0.35683125257492065,
          "8": -0.6762147545814514,
          "9": 2.1587183475494385,
          "10": 0.07352237403392792,
          "11": -0.059862978756427765,
          "12": -0.5558249950408936,
          "13": -2.38797926902771,
          "14": -0.13773155212402344,
          "15": -0.6089816689491272,
          "16": -0.4170207381248474,
          "17": 0.36840590834617615,
          "18": 1.803443431854248,
          "19": 0.4532124698162079,
          "20": -1.1612898111343384,
          "21": 2.2526590824127197,
          "22": -0.5571122169494629,
          "23": 2.315946578979492,
          "24": -0.3509128987789154,
          "25": -1.2297877073287964,
          "26": -1.8138705492019653,
          "27": -2.8025074005126953,
          "28": -0.1102607250213623,
          "29": -0.7641603350639343,
          "30": -0.6144599318504333,
          "31": 0.3195427358150482,
          "32": 2.004586696624756,
          "33": -1.5594900846481323,
          "34": -1.4885735511779785,
          "35": 1.1518384218215942,
          "36": -0.24284154176712036,
          "37": 2.245934247970581,
          "38": -0.9775997400283813,
          "39": -0.899963915348053,
          "40": -2.080298662185669,
          "41": 0.5631178617477417,
          "42": 0.10678157210350037,
          "43": 0.46958261728286743,
          "44": 1.8624802827835083,
          "45": -0.5826752185821533,
          "46": -0.7812318801879883,
          "47": 1.0338479280471802,
          "48": 1.1386778354644775,
          "49": 2.047487258911133,
          "50": -1.3339173793792725,
          "51": -1.6397441625595093,
          "52": 0.3318857252597809,
          "53": 2.8055574893951416,
          "54": -0.37206026911735535,
          "55": -1.708959937095642,
          "56": 0.45311489701271057,
          "57": -0.2586246430873871,
          "58": 1.957232117652893,
          "59": -1.1878129243850708,
          "60": -0.5069148540496826,
          "61": 2.949831485748291,
          "62": -0.98183673620224,
          "63": -0.8902629017829895,
          "64": -0.6006563901901245,
          "65": -0.5566371083259583,
          "66": 1.1127721071243286,
          "67": 2.1764421463012695,
          "68": -0.1689773052930832,
          "69": -0.5638105273246765,
          "70": 0.11709877848625183,
          "71": 0.9971950054168701,
          "72": 0.5173675417900085,
          "73": 0.14763511717319489,
          "74": -1.0124484300613403,
          "75": 0.9983270168304443,
          "76": 1.7346574068069458,
          "77": 0.34068387746810913,
          "78": 1.4017480611801147,
          "79": 0.41702523827552795,
          "80": 1.7802705764770508,
          "81": 0.6706069111824036,
          "82": 1.765726923942566,
          "83": 0.25669512152671814,
          "84": -0.4890020191669464,
          "85": -0.7283133864402771,
          "86": -0.3757866322994232,
          "87": 1.294649362564087,
          "88": 0.4206247925758362,
          "89": 0.14411060512065887,
          "90": 2.3147642612457275,
          "91": 0.04790306091308594,
          "92": -1.4493838548660278,
          "93": 1.6638047695159912,
          "94": -1.518391728401184,
          "95": 0.6671478152275085,
          "96": -1.0400865077972412,
          "97": -0.9669962525367737,
          "98": 0.9649556279182434,
          "99": -1.4126970767974854,
          "100": 0.9737205505371094,
          "101": 1.4513577222824097,
          "102": 0.5811067819595337,
          "103": 0.01662866398692131,
          "104": 0.03891157731413841,
          "105": -1.7103136777877808,
          "106": -1.37570321559906,
          "107": 2.623953342437744,
          "108": -0.20789450407028198,
          "109": -0.41223037242889404,
          "110": -1.043204665184021,
          "111": 0.16397663950920105,
          "112": 1.5416215658187866,
          "113": 0.9373565912246704,
          "114": -0.1811792254447937,
          "115": -0.4158557951450348,
          "116": 0.3746478855609894,
          "117": -0.1481185406446457,
          "118": 0.5133674740791321,
          "119": 0.024008698761463165,
          "120": -1.1492418050765991,
          "121": 0.5030276775360107,
          "122": 2.281069278717041,
          "123": -0.9806035161018372,
          "124": -0.8605150580406189,
          "125": -0.9729236960411072,
          "126": -0.2953176200389862,
          "127": -0.11306075751781464,
          "128": 3.6702544689178467,
          "129": -0.14728130400180817,
          "130": -2.024514675140381,
          "131": 0.02483993209898472,
          "132": -0.543995201587677,
          "133": 1.1784688234329224,
          "134": -0.11829745024442673,
          "135": -0.645139217376709,
          "136": -2.3230834007263184,
          "137": -2.6292564868927,
          "138": -0.07378073781728745,
          "139": 0.9141567349433899,
          "140": 1.6248085498809814,
          "141": 0.6383209824562073,
          "142": -0.7091406583786011,
          "143": 0.1914670467376709,
          "144": 1.1555489301681519,
          "145": 0.17114581167697906,
          "146": -2.1733009815216064,
          "147": -1.5730682611465454,
          "148": 1.9065009355545044,
          "149": -0.7040684819221497,
          "150": 0.8758964538574219,
          "151": -2.575655221939087,
          "152": 1.1350189447402954,
          "153": 0.04057454690337181,
          "154": -1.4321726560592651,
          "155": -0.5356373190879822,
          "156": 1.2074145078659058,
          "157": 1.9330945014953613,
          "158": -0.9227170348167419,
          "159": -1.322716474533081,
          "160": -1.845992922782898,
          "161": 2.041858434677124,
          "162": 0.6705758571624756,
          "163": -1.481569766998291,
          "164": 0.49575453996658325,
          "165": -0.7177636027336121,
          "166": -2.4212615489959717,
          "167": -2.3618781566619873,
          "168": 1.4734206199645996,
          "169": 1.3671647310256958,
          "170": 2.4970438480377197,
          "171": -1.5003772974014282,
          "172": 1.689874291419983,
          "173": 0.4180561602115631,
          "174": -1.7674273252487183,
          "175": -1.5890772342681885,
          "176": -0.7180851697921753,
          "177": 0.10347063839435577,
          "178": 1.5350819826126099,
          "179": -2.219989776611328,
          "180": -0.31553810834884644,
          "181": -0.762046754360199,
          "182": 0.2391907423734665,
          "183": 0.6658152341842651,
          "184": -0.9466861486434937,
          "185": 0.2938579022884369,
          "186": -0.4740128815174103,
          "187": 0.7325486540794373,
          "188": -0.26261264085769653,
          "189": -0.7443631887435913,
          "190": -0.9493632316589355,
          "191": -2.6625430583953857,
          "192": 0.9185048937797546,
          "193": -1.6449757814407349,
          "194": 0.7825908064842224,
          "195": -0.6862215995788574,
          "196": -3.0094361305236816,
          "197": -1.6669480800628662,
          "198": -1.0543991327285767,
          "199": 0.23192337155342102,
          "200": -2.538252115249634,
          "201": 1.9259529113769531,
          "202": -0.952495276927948,
          "203": 0.016262801364064217,
          "204": 0.4112509489059448,
          "205": -2.2337043285369873,
          "206": -0.11885564774274826,
          "207": 1.5815492868423462,
          "208": 1.1294331550598145,
          "209": 0.6073656678199768,
          "210": 0.724609375,
          "211": -1.5023006200790405,
          "212": -1.6326123476028442,
          "213": -0.6901479363441467,
          "214": 1.0401285886764526,
          "215": -0.3956875205039978,
          "216": -0.02987605147063732,
          "217": -1.4155690670013428,
          "218": 1.047119140625,
          "219": 1.019863486289978,
          "220": 0.30647388100624084,
          "221": -1.0373106002807617,
          "222": -1.2993810176849365,
          "223": 0.6121419668197632,
          "224": 1.2112655639648438,
          "225": -1.0169732570648193,
          "226": 0.8204398155212402,
          "227": -2.3824732303619385,
          "228": -3.0112850666046143,
          "229": -1.0243645906448364,
          "230": 1.3347053527832031,
          "231": -0.6805539131164551,
          "232": 2.0800111293792725,
          "233": 1.2670015096664429,
          "234": 0.8934698700904846,
          "235": -0.30391260981559753,
          "236": -1.2951812744140625,
          "237": -0.6557804346084595,
          "238": -0.10034767538309097,
          "239": 0.9510464668273926,
          "240": 2.0392863750457764,
          "241": -1.2505484819412231,
          "242": -1.6125644445419312,
          "243": -2.4271812438964844,
          "244": 1.8906515836715698,
          "245": -1.4452568292617798,
          "246": -1.50395929813385,
          "247": -2.1768651008605957,
          "248": -1.5502078533172607,
          "249": 0.42351943254470825,
          "250": -1.4932551383972168,
          "251": -0.8790974020957947,
          "252": -1.9148424863815308,
          "253": -0.8827508687973022,
          "254": 2.062145471572876,
          "255": 0.12278060615062714,
          "256": 0.7864538431167603,
          "257": -0.7537611722946167,
          "258": 0.8865458965301514,
          "259": 2.4469025135040283,
          "260": 4.116938591003418,
          "261": 1.398425817489624,
          "262": 1.1255674362182617,
          "263": -1.9210373163223267,
          "264": -1.373236894607544,
          "265": -0.5439393520355225,
          "266": 1.9716740846633911,
          "267": -0.5313680768013,
          "268": -0.7870202660560608,
          "269": -0.4885299801826477,
          "270": -0.5449658036231995,
          "271": 0.28759515285491943,
          "272": 2.1760056018829346,
          "273": 0.8309085965156555,
          "274": 1.477017879486084,
          "275": 0.00842336006462574,
          "276": 1.267397165298462,
          "277": -2.4257993698120117,
          "278": 1.6197155714035034,
          "279": -2.7333054542541504,
          "280": 1.2799746990203857,
          "281": -1.2612254619598389,
          "282": -1.6084002256393433,
          "283": 1.0849162340164185,
          "284": -1.130550742149353,
          "285": 0.5728917121887207,
          "286": 0.482309490442276,
          "287": -0.7243094444274902,
          "288": -1.6956475973129272,
          "289": 0.6485580205917358,
          "290": 1.6174774169921875,
          "291": 0.9918924570083618,
          "292": -0.24127331376075745,
          "293": -0.5115776658058167,
          "294": -2.272270679473877,
          "295": 0.6962160468101501,
          "296": 0.36836355924606323,
          "297": -1.1913472414016724,
          "298": -1.7878503799438477,
          "299": -1.7248574495315552,
          "300": -0.07955855876207352,
          "301": -0.7253162860870361,
          "302": -1.1324896812438965,
          "303": 0.9767067432403564,
          "304": 0.07686647027730942,
          "305": 0.8567476272583008,
          "306": -1.7051829099655151,
          "307": 0.3022952079772949,
          "308": -1.0154292583465576,
          "309": 1.099357008934021,
          "310": -3.2859888076782227,
          "311": -1.8332479000091553,
          "312": -0.4507202208042145,
          "313": 0.4414433538913727,
          "314": 1.05934739112854,
          "315": 0.21421657502651215,
          "316": 2.0856001377105713,
          "317": 1.3060977458953857,
          "318": 0.6506465673446655,
          "319": -0.6240778565406799,
          "320": -1.573556900024414,
          "321": 0.3617304861545563,
          "322": -0.510665774345398,
          "323": 1.596352219581604,
          "324": -0.546326756477356,
          "325": -0.7547418475151062,
          "326": 0.2698797881603241,
          "327": 1.7066054344177246,
          "328": 0.1183190643787384,
          "329": -1.2238547801971436,
          "330": 0.19502699375152588,
          "331": -2.588010787963867,
          "332": -0.7466189861297607,
          "333": -0.9316126108169556,
          "334": 0.9032679796218872,
          "335": -0.6790440678596497,
          "336": 0.22394059598445892,
          "337": -1.1419652700424194,
          "338": 3.005558490753174,
          "339": -1.273323893547058,
          "340": -0.48230698704719543,
          "341": -0.14449137449264526,
          "342": 0.1657831221818924,
          "343": -0.03755393251776695,
          "344": -0.09830156713724136,
          "345": -2.42645001411438,
          "346": -0.3049534261226654,
          "347": 1.7185333967208862,
          "348": -0.48328495025634766,
          "349": -0.5623342394828796,
          "350": 0.3676462471485138,
          "351": 0.8443002700805664,
          "352": 1.9735465049743652,
          "353": 1.3295044898986816,
          "354": 0.8430649042129517,
          "355": 3.120417833328247,
          "356": -1.0612396001815796,
          "357": 0.39110904932022095,
          "358": 0.8273815512657166,
          "359": 1.5530455112457275,
          "360": 0.03367782384157181,
          "361": -0.6845036745071411,
          "362": 0.16306287050247192,
          "363": -0.15382318198680878,
          "364": 1.4391577243804932,
          "365": -0.30299112200737,
          "366": 0.429759681224823,
          "367": 0.5824682712554932,
          "368": 1.4553837776184082,
          "369": -0.22035881876945496,
          "370": -1.04017972946167,
          "371": 0.9020983576774597,
          "372": -2.775752067565918,
          "373": 3.3351891040802,
          "374": 0.6917300820350647,
          "375": -2.0865275859832764,
          "376": -1.0702476501464844,
          "377": -1.5951493978500366,
          "378": 1.7220996618270874,
          "379": -0.8563463091850281,
          "380": -0.7402255535125732,
          "381": -0.583747386932373,
          "382": 0.2042483538389206,
          "383": -0.19650349020957947,
          "384": -0.3453039228916168,
          "385": 0.9214261770248413,
          "386": 2.228506565093994,
          "387": -0.5081127882003784,
          "388": 1.037476897239685,
          "389": 2.0684823989868164,
          "390": 1.66167414188385,
          "391": -0.8216010332107544,
          "392": -3.0219223499298096,
          "393": 1.1384937763214111,
          "394": 2.7252049446105957,
          "395": 2.1277599334716797,
          "396": -1.6618627309799194,
          "397": 1.664808750152588,
          "398": -1.4195668697357178,
          "399": 0.25155168771743774,
          "400": 0.33695024251937866,
          "401": -0.709185004234314,
          "402": 1.9901537895202637,
          "403": -1.6320582628250122,
          "404": 0.980158805847168,
          "405": -2.0971264839172363,
          "406": -0.3739747107028961,
          "407": 2.4171817302703857,
          "408": 0.4145817160606384,
          "409": 0.752001941204071,
          "410": 1.7581641674041748,
          "411": -0.5770809054374695,
          "412": -1.3767834901809692,
          "413": 1.3709704875946045,
          "414": 0.8063011765480042,
          "415": 2.1570143699645996,
          "416": -0.006638295948505402,
          "417": 1.5338670015335083,
          "418": -1.346733808517456,
          "419": 2.335057020187378,
          "420": 0.757876992225647,
          "421": 4.251003265380859,
          "422": -0.5920422077178955,
          "423": -0.7355881333351135,
          "424": -1.4987860918045044,
          "425": -1.5496009588241577,
          "426": -3.3953490257263184,
          "427": 1.8848031759262085,
          "428": 1.246745228767395,
          "429": 1.6298125982284546,
          "430": -1.5035783052444458,
          "431": 1.7781269550323486,
          "432": 0.30767568945884705,
          "433": 0.841098427772522,
          "434": 0.5646061897277832,
          "435": 3.475430488586426,
          "436": -0.8430618047714233,
          "437": -2.049785614013672,
          "438": -1.2083665132522583,
          "439": -1.0874227285385132,
          "440": -0.6372013092041016,
          "441": -1.5583393573760986,
          "442": 0.3143400549888611,
          "443": -1.1978347301483154,
          "444": 1.3846724033355713,
          "445": 0.9219260215759277,
          "446": 2.538843870162964,
          "447": 1.1543195247650146,
          "448": -1.0979362726211548,
          "449": -1.418233036994934,
          "450": -1.7775375843048096,
          "451": -0.7963196635246277,
          "452": 0.5471552610397339,
          "453": -2.446962356567383,
          "454": -2.1363484859466553,
          "455": 2.0694665908813477,
          "456": -0.5424971580505371,
          "457": -0.24702219665050507,
          "458": 0.31444302201271057,
          "459": -0.5129806995391846,
          "460": 0.9533462524414062,
          "461": -0.2270103096961975,
          "462": 0.0584162101149559,
          "463": 0.361748605966568,
          "464": 1.122753381729126,
          "465": -0.5797484517097473,
          "466": 1.5979198217391968,
          "467": 1.7550148963928223,
          "468": -1.2784403562545776,
          "469": -0.3429817855358124,
          "470": -1.3030266761779785,
          "471": 1.1324206590652466,
          "472": 0.24152053892612457,
          "473": -1.4851257801055908,
          "474": -0.6418153643608093,
          "475": -1.0955548286437988,
          "476": -1.7412961721420288,
          "477": -4.204598903656006,
          "478": 1.4880996942520142,
          "479": 0.9658368229866028,
          "480": 2.8687450885772705,
          "481": -0.7971271872520447,
          "482": 1.4320156574249268,
          "483": 0.7772006392478943,
          "484": -1.1672862768173218,
          "485": -1.1593023538589478,
          "486": -0.5432980060577393,
          "487": 0.8971941471099854,
          "488": 0.36124640703201294,
          "489": -1.4458074569702148,
          "490": -1.080308198928833,
          "491": -1.2189961671829224,
          "492": 1.2073556184768677,
          "493": 1.6232572793960571,
          "494": 0.22801291942596436,
          "495": 1.2821110486984253,
          "496": -2.2891311645507812,
          "497": 1.0244660377502441,
          "498": -2.4576709270477295,
          "499": 0.6744365096092224,
          "500": -0.8994051814079285,
          "501": -1.58133065700531,
          "502": 1.4332045316696167,
          "503": 2.0599286556243896,
          "504": -2.241121530532837,
          "505": -0.2814706861972809,
          "506": -0.6874709129333496,
          "507": -1.3564636707305908,
          "508": -1.9894249439239502,
          "509": 1.5632892847061157,
          "510": 0.4459353983402252,
          "511": 1.4583593606948853,
          "512": 0.19080102443695068,
          "513": 2.740542411804199,
          "514": -0.960119366645813,
          "515": -2.4877076148986816,
          "516": -1.5578380823135376,
          "517": -1.6529185771942139,
          "518": -0.9091500639915466,
          "519": 0.5384791493415833,
          "520": 0.5135990381240845,
          "521": -2.2223258018493652,
          "522": -0.9125229716300964,
          "523": -0.8105568885803223,
          "524": 1.651727557182312,
          "525": -1.5492171049118042,
          "526": 0.8458791971206665,
          "527": -0.9686917066574097,
          "528": -0.20476792752742767,
          "529": -0.3664840757846832,
          "530": -1.3596436977386475,
          "531": 0.9215383529663086,
          "532": 1.4021799564361572,
          "533": 2.4343349933624268,
          "534": 1.2766988277435303,
          "535": 0.020139260217547417,
          "536": -2.9502112865448,
          "537": 0.7741003036499023,
          "538": 2.9171366691589355,
          "539": 1.6123684644699097,
          "540": 1.2819327116012573,
          "541": 0.5740063786506653,
          "542": -3.0139029026031494,
          "543": 1.2361774444580078,
          "544": -0.01366242952644825,
          "545": 1.6975544691085815,
          "546": 0.6661349534988403,
          "547": 2.528679370880127,
          "548": -0.9957035183906555,
          "549": 1.5828771591186523,
          "550": -0.7869551777839661,
          "551": 0.7722568511962891,
          "552": 2.7019193172454834,
          "553": -0.1726551204919815,
          "554": 4.1253180503845215,
          "555": 0.032421499490737915,
          "556": -0.3762891888618469,
          "557": 1.4641144275665283,
          "558": -1.282740831375122,
          "559": 2.0499260425567627,
          "560": -0.5136798024177551,
          "561": 1.6136202812194824,
          "562": 1.24955153465271,
          "563": -0.9795382618904114,
          "564": -0.2984536588191986,
          "565": -1.0413342714309692,
          "566": 0.5246594548225403,
          "567": -0.0455087274312973,
          "568": -1.9387661218643188,
          "569": -1.5190194845199585,
          "570": 1.6725901365280151,
          "571": 0.5866734385490417,
          "572": -1.6921629905700684,
          "573": -0.045923590660095215,
          "574": 0.9016152024269104,
          "575": -0.7797732353210449,
          "576": 0.9745310544967651,
          "577": -1.1949849128723145,
          "578": 0.6514623761177063,
          "579": 0.8986120820045471,
          "580": 0.9637259840965271,
          "581": -1.2940819263458252,
          "582": -0.2026960551738739,
          "583": 0.000951364345382899,
          "584": -0.5272056460380554,
          "585": 2.001856803894043,
          "586": 2.1746134757995605,
          "587": -0.6144658327102661,
          "588": -0.038614556193351746,
          "589": 0.8445518016815186,
          "590": -1.0947998762130737,
          "591": -0.9029383659362793,
          "592": -0.6751158833503723,
          "593": 3.1765875816345215,
          "594": -0.09961734712123871,
          "595": -2.591024160385132,
          "596": -0.2086314558982849,
          "597": -1.336611270904541,
          "598": 1.501144289970398,
          "599": 1.8153557777404785,
          "600": 0.21122106909751892,
          "601": -2.655674457550049,
          "602": -3.461672306060791,
          "603": -2.2749059200286865,
          "604": 1.7058597803115845,
          "605": 1.5197312831878662,
          "606": 0.3810451924800873,
          "607": -2.266674280166626,
          "608": 0.8757755756378174,
          "609": -0.3124586045742035,
          "610": 1.7881053686141968,
          "611": -1.845912218093872,
          "612": -0.012574227526783943,
          "613": -0.719824492931366,
          "614": -1.8521099090576172,
          "615": -0.26715290546417236,
          "616": -3.0174336433410645,
          "617": -0.4641772508621216,
          "618": 0.11528690904378891,
          "619": -4.160611629486084
        }
      },
      "inputHidden": {
        "rows": 20,
        "columns": 20,
        "weights": {
          "0": -2.7040109634399414,
          "1": -3.114121437072754,
          "2": -0.2936071753501892,
          "3": -2.1955199241638184,
          "4": -0.13425427675247192,
          "5": 1.2044261693954468,
          "6": 0.7189562916755676,
          "7": -1.3292185068130493,
          "8": -5.5525617599487305,
          "9": 0.4435550570487976,
          "10": -4.440798282623291,
          "11": 0.5609009861946106,
          "12": -1.9825352430343628,
          "13": -0.29406359791755676,
          "14": -1.6764284372329712,
          "15": 2.261889934539795,
          "16": 0.5158737897872925,
          "17": 1.4710232019424438,
          "18": 0.16224108636379242,
          "19": -2.541231870651245,
          "20": -0.6708566546440125,
          "21": 1.0012192726135254,
          "22": -1.74573814868927,
          "23": -0.021934153512120247,
          "24": -1.2147058248519897,
          "25": 2.316821336746216,
          "26": 0.7673540115356445,
          "27": -2.422832489013672,
          "28": -1.5206793546676636,
          "29": 0.49356818199157715,
          "30": 1.7663382291793823,
          "31": 0.9929033517837524,
          "32": 0.11189353466033936,
          "33": -2.148627281188965,
          "34": 0.7995635867118835,
          "35": 1.8780356645584106,
          "36": -1.785682201385498,
          "37": 2.1861019134521484,
          "38": -0.1308746635913849,
          "39": 0.27356210350990295,
          "40": 0.8888078927993774,
          "41": 1.1958427429199219,
          "42": 5.180447101593018,
          "43": -2.4501543045043945,
          "44": -0.3736167550086975,
          "45": 5.759842872619629,
          "46": 0.703746497631073,
          "47": -0.1192551776766777,
          "48": -0.6517567038536072,
          "49": 0.6347269415855408,
          "50": 0.08810219168663025,
          "51": -1.9413849115371704,
          "52": -2.231008529663086,
          "53": -2.5359959602355957,
          "54": 4.281345844268799,
          "55": 5.608696937561035,
          "56": 0.036142487078905106,
          "57": 1.834959864616394,
          "58": -1.8276846408843994,
          "59": -2.850353956222534,
          "60": -1.871287226676941,
          "61": 0.20515602827072144,
          "62": -1.225561261177063,
          "63": 1.6598080396652222,
          "64": -0.8072366118431091,
          "65": 4.658379554748535,
          "66": -1.1489033699035645,
          "67": 4.110935211181641,
          "68": 1.312645435333252,
          "69": 6.334792137145996,
          "70": 3.5426063537597656,
          "71": -1.239214539527893,
          "72": 3.1069436073303223,
          "73": -4.998572826385498,
          "74": 1.7458295822143555,
          "75": 1.3966320753097534,
          "76": -0.7187933921813965,
          "77": 0.2674941122531891,
          "78": 0.8165464401245117,
          "79": 0.11356191337108612,
          "80": 1.1086806058883667,
          "81": 0.43361324071884155,
          "82": 0.5646607279777527,
          "83": 1.750110387802124,
          "84": -1.0612728595733643,
          "85": 0.0012933181133121252,
          "86": -1.9884086847305298,
          "87": 2.8993923664093018,
          "88": -0.5515010356903076,
          "89": -1.6305971145629883,
          "90": 0.16012166440486908,
          "91": -2.095019578933716,
          "92": -1.3426977396011353,
          "93": -1.8746145963668823,
          "94": 1.0123696327209473,
          "95": 1.0424237251281738,
          "96": 1.2483264207839966,
          "97": 0.2459471970796585,
          "98": -0.21340630948543549,
          "99": -0.2437470704317093,
          "100": 1.5347414016723633,
          "101": -0.7392501831054688,
          "102": -0.5344603657722473,
          "103": 0.20197127759456635,
          "104": -0.38065940141677856,
          "105": -0.10346601903438568,
          "106": -2.4978227615356445,
          "107": 0.6835187673568726,
          "108": 1.3269238471984863,
          "109": -0.1292448192834854,
          "110": -0.6384891867637634,
          "111": 1.8982304334640503,
          "112": 0.9727888703346252,
          "113": -0.24659070372581482,
          "114": 1.372763752937317,
          "115": 1.3113957643508911,
          "116": 0.08963774889707565,
          "117": 0.779295802116394,
          "118": -2.9018051624298096,
          "119": -1.0670942068099976,
          "120": -1.666261076927185,
          "121": -0.706101655960083,
          "122": 1.1079130172729492,
          "123": -1.2035622596740723,
          "124": 0.3698277175426483,
          "125": -3.6760714054107666,
          "126": -0.17013853788375854,
          "127": -1.583091378211975,
          "128": -1.0938737392425537,
          "129": -0.9083558917045593,
          "130": 0.7450087666511536,
          "131": -0.39992639422416687,
          "132": -0.11368662863969803,
          "133": 1.7697945833206177,
          "134": 2.5266523361206055,
          "135": 2.120056390762329,
          "136": 1.0369272232055664,
          "137": -1.1664518117904663,
          "138": -4.8249831199646,
          "139": 0.6081317663192749,
          "140": 0.2100648730993271,
          "141": 0.09575806558132172,
          "142": -0.7327239513397217,
          "143": -1.979369878768921,
          "144": -1.8940632343292236,
          "145": -0.2292708158493042,
          "146": -0.2813398838043213,
          "147": 0.3839583396911621,
          "148": 1.699573040008545,
          "149": 0.7095463871955872,
          "150": 0.8437328338623047,
          "151": 0.1451304852962494,
          "152": 2.5670876502990723,
          "153": 0.8273072838783264,
          "154": 1.0802843570709229,
          "155": -3.246018886566162,
          "156": 2.3095016479492188,
          "157": 1.0567363500595093,
          "158": -0.3469505310058594,
          "159": -0.3522953689098358,
          "160": -0.27015936374664307,
          "161": -1.4813456535339355,
          "162": -1.1959376335144043,
          "163": -1.1430630683898926,
          "164": 0.7136152386665344,
          "165": -3.4874508380889893,
          "166": -1.1469194889068604,
          "167": 1.1678980588912964,
          "168": 1.3259845972061157,
          "169": 1.0659728050231934,
          "170": 0.314433753490448,
          "171": 3.0704572200775146,
          "172": 0.03464442491531372,
          "173": 1.750585913658142,
          "174": -0.573749840259552,
          "175": 0.5995757579803467,
          "176": -0.7696748971939087,
          "177": -1.7185784578323364,
          "178": 0.5860477685928345,
          "179": 2.300654649734497,
          "180": 2.8992600440979004,
          "181": 2.7087225914001465,
          "182": 2.029350757598877,
          "183": 1.9780558347702026,
          "184": 0.2556453347206116,
          "185": 1.5626885890960693,
          "186": -2.4415884017944336,
          "187": 0.6227602362632751,
          "188": 1.1045796871185303,
          "189": 0.649323582649231,
          "190": 3.5567290782928467,
          "191": -2.126636266708374,
          "192": 0.6134987473487854,
          "193": -2.3659403324127197,
          "194": -0.32603248953819275,
          "195": -0.4078850746154785,
          "196": -0.6471521258354187,
          "197": 1.9962586164474487,
          "198": -2.127230167388916,
          "199": 1.5043495893478394,
          "200": -0.9077178239822388,
          "201": 1.401878833770752,
          "202": 2.1500244140625,
          "203": -1.8307613134384155,
          "204": 4.575009822845459,
          "205": -0.6117106080055237,
          "206": 1.120775580406189,
          "207": -2.723863124847412,
          "208": 0.1003943383693695,
          "209": -0.03772835060954094,
          "210": 1.933745265007019,
          "211": -0.9601185917854309,
          "212": 2.8887031078338623,
          "213": -0.1967545747756958,
          "214": -0.4373286962509155,
          "215": -0.24148604273796082,
          "216": 0.23280438780784607,
          "217": -1.9084594249725342,
          "218": 1.9848542213439941,
          "219": -1.117231011390686,
          "220": 1.4944599866867065,
          "221": -3.3752002716064453,
          "222": -1.9917658567428589,
          "223": -3.230189561843872,
          "224": -0.6546566486358643,
          "225": -2.4241209030151367,
          "226": -0.23262499272823334,
          "227": -1.9984148740768433,
          "228": 0.26299017667770386,
          "229": -2.8406639099121094,
          "230": -0.9792987108230591,
          "231": 0.9611987471580505,
          "232": 1.18050217628479,
          "233": 0.9263071417808533,
          "234": -1.7281017303466797,
          "235": -2.874298572540283,
          "236": -1.0600299835205078,
          "237": 0.49104228615760803,
          "238": -2.1555280685424805,
          "239": 0.4579675495624542,
          "240": 1.031823992729187,
          "241": 0.5141550302505493,
          "242": 0.10859209299087524,
          "243": 2.009330987930298,
          "244": 0.5303053259849548,
          "245": 0.33390504121780396,
          "246": -0.8727750182151794,
          "247": -0.9004647731781006,
          "248": 0.9756920337677002,
          "249": -0.5416464805603027,
          "250": 0.2416163831949234,
          "251": -1.7098482847213745,
          "252": -1.6054556369781494,
          "253": 0.4435392916202545,
          "254": -0.9715563654899597,
          "255": -0.9767849445343018,
          "256": -0.31723907589912415,
          "257": -1.8004961013793945,
          "258": 1.6372426748275757,
          "259": 0.8753183484077454,
          "260": 1.1936349868774414,
          "261": -2.0871407985687256,
          "262": -0.5853046774864197,
          "263": -0.034864310175180435,
          "264": -1.9123717546463013,
          "265": -0.04032835364341736,
          "266": 1.026933193206787,
          "267": 0.12155023217201233,
          "268": 1.6124886274337769,
          "269": 1.5968185663223267,
          "270": 0.6618055105209351,
          "271": 0.19824479520320892,
          "272": 0.6439793109893799,
          "273": 0.1562214344739914,
          "274": 1.5925084352493286,
          "275": -0.5823692083358765,
          "276": -0.8895769715309143,
          "277": -0.2966327369213104,
          "278": 0.10549279302358627,
          "279": 1.1140263080596924,
          "280": -2.4294838905334473,
          "281": -0.2849154472351074,
          "282": 0.9159706234931946,
          "283": -1.0667879581451416,
          "284": -2.4913318157196045,
          "285": 1.2016111612319946,
          "286": 1.3863002061843872,
          "287": 2.7417683601379395,
          "288": -1.47784423828125,
          "289": -0.2203103005886078,
          "290": 2.7784860134124756,
          "291": 1.0447431802749634,
          "292": 0.9159146547317505,
          "293": -2.102269411087036,
          "294": -1.1186326742172241,
          "295": -1.859609603881836,
          "296": -2.263625144958496,
          "297": 0.8264136910438538,
          "298": 1.748989224433899,
          "299": 1.552524209022522,
          "300": 0.054361894726753235,
          "301": -0.6669067740440369,
          "302": 0.006462350022047758,
          "303": 0.4532069265842438,
          "304": -1.051351547241211,
          "305": 0.35286200046539307,
          "306": 1.1655259132385254,
          "307": 0.7426761984825134,
          "308": 0.21271607279777527,
          "309": 0.17074967920780182,
          "310": 0.04776258394122124,
          "311": -0.8807609677314758,
          "312": -0.5705569386482239,
          "313": 0.845014214515686,
          "314": -0.16008387506008148,
          "315": -2.3528685569763184,
          "316": -2.161241054534912,
          "317": -0.782887876033783,
          "318": 0.4839709401130676,
          "319": 0.6365268230438232,
          "320": 0.6575117707252502,
          "321": 2.445250988006592,
          "322": 0.511688768863678,
          "323": 1.574973702430725,
          "324": -2.2900946140289307,
          "325": 1.6116669178009033,
          "326": 1.7859474420547485,
          "327": 2.015974521636963,
          "328": 0.6255058646202087,
          "329": 1.1993134021759033,
          "330": 1.8022691011428833,
          "331": 1.0092533826828003,
          "332": -0.2964227497577667,
          "333": -3.3861477375030518,
          "334": -0.8400136232376099,
          "335": 1.978678822517395,
          "336": -1.1412988901138306,
          "337": 3.477149724960327,
          "338": 0.35174259543418884,
          "339": 0.7460034489631653,
          "340": 0.6662070751190186,
          "341": 0.14787930250167847,
          "342": 2.871224880218506,
          "343": 1.2152916193008423,
          "344": 1.1557092666625977,
          "345": 1.5681718587875366,
          "346": -0.4949970543384552,
          "347": -0.7053973078727722,
          "348": -1.270973563194275,
          "349": -1.8405498266220093,
          "350": 0.21674035489559174,
          "351": -0.8819271922111511,
          "352": -1.87765634059906,
          "353": -0.5440945625305176,
          "354": -0.2416536509990692,
          "355": 0.8816578388214111,
          "356": 2.3677659034729004,
          "357": -1.4703410863876343,
          "358": -2.685742139816284,
          "359": -0.35655224323272705,
          "360": 4.658803462982178,
          "361": 0.0271096583455801,
          "362": 0.727777898311615,
          "363": 0.877694845199585,
          "364": -0.6014981865882874,
          "365": 1.6115585565567017,
          "366": -3.9230194091796875,
          "367": -4.198329448699951,
          "368": 1.2039752006530762,
          "369": -0.6719168424606323,
          "370": 0.1628424972295761,
          "371": -1.2951973676681519,
          "372": -0.47980889678001404,
          "373": 1.8148027658462524,
          "374": -2.0700647830963135,
          "375": 0.9278732538223267,
          "376": 1.5030590295791626,
          "377": -0.6915118098258972,
          "378": 1.9456713199615479,
          "379": -2.1639091968536377,
          "380": -0.3099184036254883,
          "381": 0.7125612497329712,
          "382": 1.6909054517745972,
          "383": 2.120605230331421,
          "384": -0.10991665720939636,
          "385": -0.5230851173400879,
          "386": -0.5318641662597656,
          "387": -0.437526136636734,
          "388": 1.1844192743301392,
          "389": -0.7318392395973206,
          "390": -1.216936469078064,
          "391": -0.429737389087677,
          "392": -1.3317883014678955,
          "393": 0.4896332621574402,
          "394": 0.509376585483551,
          "395": -0.5789327025413513,
          "396": 1.4862943887710571,
          "397": 1.0808804035186768,
          "398": -0.5278679132461548,
          "399": -0.9301460981369019
        }
      },
      "inputBias": {
        "rows": 20,
        "columns": 1,
        "weights": {
          "0": -1.2578777074813843,
          "1": 0.5772699117660522,
          "2": 0.44243645668029785,
          "3": -0.05927800014615059,
          "4": -0.5066301822662354,
          "5": 0.11600303649902344,
          "6": -0.0027385649736970663,
          "7": 0.02603609301149845,
          "8": 0.5634639859199524,
          "9": 0.0950944572687149,
          "10": 0.8411657214164734,
          "11": -0.019950147718191147,
          "12": -0.20590363442897797,
          "13": -0.702521562576294,
          "14": 0.4057847857475281,
          "15": -0.2844981253147125,
          "16": 0.106474369764328,
          "17": 0.4367773234844208,
          "18": 0.4074757397174835,
          "19": 0.5149245262145996
        }
      },
      "forgetMatrix": {
        "rows": 20,
        "columns": 31,
        "weights": {
          "0": -0.06437032669782639,
          "1": 2.5337719917297363,
          "2": -0.18313243985176086,
          "3": 0.7206379771232605,
          "4": -0.7369492053985596,
          "5": -2.505816698074341,
          "6": 1.38832688331604,
          "7": -1.8920949697494507,
          "8": -1.791203498840332,
          "9": 0.8983517289161682,
          "10": 0.33007124066352844,
          "11": -1.7987735271453857,
          "12": -1.147810697555542,
          "13": 1.5853372812271118,
          "14": -1.8660231828689575,
          "15": 2.0319416522979736,
          "16": -0.20736128091812134,
          "17": 1.4731628894805908,
          "18": -0.8931778073310852,
          "19": -1.999610424041748,
          "20": -0.6767463088035583,
          "21": 0.3264888823032379,
          "22": 0.8734974265098572,
          "23": 1.1736022233963013,
          "24": 0.5288416147232056,
          "25": -0.24735905230045319,
          "26": -1.3436297178268433,
          "27": 0.539986252784729,
          "28": -0.5800241231918335,
          "29": -0.9724787473678589,
          "30": 0.02666810154914856,
          "31": -4.0506696701049805,
          "32": 1.1028915643692017,
          "33": -0.08223772794008255,
          "34": -2.2474846839904785,
          "35": -2.6470634937286377,
          "36": -0.926571786403656,
          "37": 1.7810449600219727,
          "38": -1.3157470226287842,
          "39": -0.12184073030948639,
          "40": 0.007461887784302235,
          "41": 1.7320197820663452,
          "42": 0.786358654499054,
          "43": 0.9272734522819519,
          "44": -0.10092166811227798,
          "45": 3.286341667175293,
          "46": -3.1919095516204834,
          "47": -1.1128984689712524,
          "48": -0.6196702718734741,
          "49": -2.287550687789917,
          "50": -0.9027501940727234,
          "51": 0.36946576833724976,
          "52": 1.7140445709228516,
          "53": 0.12054871767759323,
          "54": 2.2839369773864746,
          "55": 2.9164414405822754,
          "56": 2.9547061920166016,
          "57": 0.45965176820755005,
          "58": -0.1446128785610199,
          "59": -0.18179994821548462,
          "60": 0.4450336992740631,
          "61": 0.16812554001808167,
          "62": 0.27784276008605957,
          "63": -0.5752660632133484,
          "64": 1.5712172985076904,
          "65": -0.32815054059028625,
          "66": 0.4942411780357361,
          "67": -0.2768000066280365,
          "68": -1.5680290460586548,
          "69": 0.28349995613098145,
          "70": -1.3399481773376465,
          "71": 2.1247358322143555,
          "72": 0.23078308999538422,
          "73": 0.07137912511825562,
          "74": -2.304548978805542,
          "75": -1.2873669862747192,
          "76": 2.4308242797851562,
          "77": 0.5293802618980408,
          "78": -0.0170261450111866,
          "79": 0.9436593055725098,
          "80": -1.6372621059417725,
          "81": 0.8095033168792725,
          "82": 1.1309760808944702,
          "83": 0.23141580820083618,
          "84": -4.1829681396484375,
          "85": 0.29762107133865356,
          "86": 2.293278932571411,
          "87": -1.085561752319336,
          "88": 1.7722558975219727,
          "89": -0.9524028301239014,
          "90": -0.5518930554389954,
          "91": 1.4638673067092896,
          "92": -1.7329416275024414,
          "93": -0.6090324521064758,
          "94": 0.3925570547580719,
          "95": -0.9679635167121887,
          "96": 0.19335956871509552,
          "97": 0.3899800777435303,
          "98": -0.862438976764679,
          "99": 0.7975983023643494,
          "100": 0.5687064528465271,
          "101": -1.5059685707092285,
          "102": -0.6041663289070129,
          "103": -2.2387869358062744,
          "104": 0.0996180847287178,
          "105": -1.5696873664855957,
          "106": 0.9678329229354858,
          "107": 0.9740557074546814,
          "108": -0.5211081504821777,
          "109": -0.6030353307723999,
          "110": 2.3464486598968506,
          "111": 0.19636622071266174,
          "112": -2.0215234756469727,
          "113": -1.168268084526062,
          "114": -0.7408051490783691,
          "115": 0.3494291603565216,
          "116": 0.009725306183099747,
          "117": -0.4286320209503174,
          "118": 0.16698497533798218,
          "119": -0.2981775999069214,
          "120": -0.20393942296504974,
          "121": 1.5041652917861938,
          "122": -1.7470428943634033,
          "123": 1.271423101425171,
          "124": -0.21092623472213745,
          "125": 0.8068526983261108,
          "126": -0.10889768600463867,
          "127": 1.54288911819458,
          "128": -0.30742743611335754,
          "129": 0.45059487223625183,
          "130": 1.7909114360809326,
          "131": 2.2953717708587646,
          "132": -3.099655866622925,
          "133": -2.50634765625,
          "134": 0.5993001461029053,
          "135": -1.151411533355713,
          "136": -0.36517333984375,
          "137": 1.110357642173767,
          "138": -1.8896456956863403,
          "139": -0.2611309885978699,
          "140": 2.5873563289642334,
          "141": 3.1459293365478516,
          "142": -2.6233603954315186,
          "143": -0.8847775459289551,
          "144": -1.2798789739608765,
          "145": -3.6662380695343018,
          "146": 0.3625849485397339,
          "147": -0.5179703831672668,
          "148": -0.8764700889587402,
          "149": -2.1898767948150635,
          "150": 0.30422985553741455,
          "151": -0.053633756935596466,
          "152": -1.1334863901138306,
          "153": -1.0777387619018555,
          "154": 1.5994898080825806,
          "155": 0.23447129130363464,
          "156": -0.7707845568656921,
          "157": -0.6940741539001465,
          "158": 0.7286312580108643,
          "159": -2.0813283920288086,
          "160": 0.2620084881782532,
          "161": -0.7306225895881653,
          "162": -0.15628378093242645,
          "163": 0.3819269835948944,
          "164": 1.0035160779953003,
          "165": -0.9677210450172424,
          "166": -0.16917426884174347,
          "167": -1.3172426223754883,
          "168": -0.27086392045021057,
          "169": -0.8146194815635681,
          "170": 1.0310014486312866,
          "171": 0.9877017736434937,
          "172": -0.5285626649856567,
          "173": 0.8099513053894043,
          "174": -0.14916393160820007,
          "175": 1.258561134338379,
          "176": 0.052841704338788986,
          "177": 1.6629090309143066,
          "178": 1.1410366296768188,
          "179": -0.8798802495002747,
          "180": 0.8523759841918945,
          "181": -1.6532701253890991,
          "182": 1.109525442123413,
          "183": 0.8088900446891785,
          "184": 1.422599196434021,
          "185": -0.7002848386764526,
          "186": 0.22897663712501526,
          "187": 0.6573824882507324,
          "188": 1.5608134269714355,
          "189": -1.1355276107788086,
          "190": -1.517635464668274,
          "191": 0.10891009867191315,
          "192": -0.6085795164108276,
          "193": -2.0545833110809326,
          "194": 0.6178628206253052,
          "195": 0.786662757396698,
          "196": -0.8372012376785278,
          "197": -0.9118111729621887,
          "198": 0.6548450589179993,
          "199": -0.49129724502563477,
          "200": 0.5597488284111023,
          "201": 0.6470303535461426,
          "202": -1.040758728981018,
          "203": -0.9806526899337769,
          "204": -0.04689516872167587,
          "205": 0.4107641875743866,
          "206": 0.5915858149528503,
          "207": 2.3985419273376465,
          "208": 1.8582972288131714,
          "209": 1.820685625076294,
          "210": -2.1083455085754395,
          "211": 0.19049037992954254,
          "212": -2.3700859546661377,
          "213": 0.650092363357544,
          "214": -1.9042433500289917,
          "215": 0.09711269289255142,
          "216": -0.5491571426391602,
          "217": 0.19406481087207794,
          "218": 2.8191235065460205,
          "219": -0.24475665390491486,
          "220": 0.6938328742980957,
          "221": 1.6834853887557983,
          "222": 1.1787769794464111,
          "223": 0.7973974943161011,
          "224": -1.2129790782928467,
          "225": -1.102047324180603,
          "226": -2.991701364517212,
          "227": 0.8501357436180115,
          "228": -0.5028218030929565,
          "229": 2.2986576557159424,
          "230": 2.0023937225341797,
          "231": -2.736650228500366,
          "232": -0.9590348601341248,
          "233": 0.15327273309230804,
          "234": 0.5200849771499634,
          "235": 0.9968909025192261,
          "236": 0.14699815213680267,
          "237": -0.9375901818275452,
          "238": 0.6836704611778259,
          "239": 1.7633932828903198,
          "240": -1.3667353391647339,
          "241": -1.1778206825256348,
          "242": 0.11213381588459015,
          "243": -1.2844302654266357,
          "244": 2.215742349624634,
          "245": 0.6596567034721375,
          "246": -0.48981159925460815,
          "247": 2.4025371074676514,
          "248": -0.44377678632736206,
          "249": -1.9332119226455688,
          "250": 1.2771214246749878,
          "251": -0.29396742582321167,
          "252": 0.09308518469333649,
          "253": 2.0457770824432373,
          "254": -0.7744516730308533,
          "255": -2.375455856323242,
          "256": 0.3467816710472107,
          "257": 0.6096713542938232,
          "258": 0.1939552128314972,
          "259": -0.5788323879241943,
          "260": -1.2043856382369995,
          "261": -1.417411208152771,
          "262": 1.6581250429153442,
          "263": -0.2861618101596832,
          "264": -0.6314328908920288,
          "265": 0.1630443036556244,
          "266": 0.9732619524002075,
          "267": 1.3539021015167236,
          "268": -0.21925096213817596,
          "269": 1.8312960863113403,
          "270": 0.9686018824577332,
          "271": 2.000807523727417,
          "272": -1.86609947681427,
          "273": -0.32338595390319824,
          "274": -1.384771704673767,
          "275": -0.42626461386680603,
          "276": 0.16405948996543884,
          "277": -1.0787361860275269,
          "278": -1.4399605989456177,
          "279": 2.4319911003112793,
          "280": 2.1478657722473145,
          "281": -2.362192153930664,
          "282": -0.19808681309223175,
          "283": 0.4463770091533661,
          "284": -1.895609736442566,
          "285": 0.6039773225784302,
          "286": -0.18013733625411987,
          "287": -0.6297070980072021,
          "288": 0.6732364892959595,
          "289": 1.772411584854126,
          "290": 0.5961058735847473,
          "291": -0.05442357808351517,
          "292": 0.8181314468383789,
          "293": -0.5336742401123047,
          "294": -0.9090017676353455,
          "295": -2.085317373275757,
          "296": 0.4033975899219513,
          "297": 1.6333041191101074,
          "298": -0.6714707612991333,
          "299": -3.1346981525421143,
          "300": 0.13209764659404755,
          "301": 0.6443461179733276,
          "302": -0.35915592312812805,
          "303": -2.44488525390625,
          "304": 1.7329539060592651,
          "305": 1.2105718851089478,
          "306": 0.990202009677887,
          "307": 1.2288082838058472,
          "308": 2.0616347789764404,
          "309": 2.4504809379577637,
          "310": 0.5267846584320068,
          "311": -1.72477388381958,
          "312": 0.09633752703666687,
          "313": 1.3124125003814697,
          "314": 0.12329095602035522,
          "315": 4.3277106285095215,
          "316": -1.221846103668213,
          "317": -0.8583126664161682,
          "318": 0.729093074798584,
          "319": -0.6648524403572083,
          "320": 0.9679498076438904,
          "321": 0.5596164464950562,
          "322": 1.8464140892028809,
          "323": -1.3078863620758057,
          "324": -0.19877897202968597,
          "325": -0.48070767521858215,
          "326": -1.0143131017684937,
          "327": -0.800179123878479,
          "328": 0.6876857280731201,
          "329": 0.5512171387672424,
          "330": 1.1109849214553833,
          "331": -0.16992466151714325,
          "332": -0.013396872207522392,
          "333": 0.010072752833366394,
          "334": 0.36946675181388855,
          "335": -0.2828562557697296,
          "336": -0.4915882647037506,
          "337": -0.4400317966938019,
          "338": -0.4693727195262909,
          "339": -0.7288227677345276,
          "340": -1.8045331239700317,
          "341": 1.449278473854065,
          "342": -1.984535574913025,
          "343": 0.18274115025997162,
          "344": 2.8801698684692383,
          "345": -0.7576732635498047,
          "346": 0.8710035085678101,
          "347": -1.1503853797912598,
          "348": 0.621437132358551,
          "349": 1.0429378747940063,
          "350": 0.5065630674362183,
          "351": -0.18164899945259094,
          "352": -0.8040884733200073,
          "353": 0.3435765206813812,
          "354": -1.0837786197662354,
          "355": -0.6692026257514954,
          "356": 0.8897982835769653,
          "357": -2.057692527770996,
          "358": -0.2545201778411865,
          "359": -0.33470797538757324,
          "360": 0.7645419239997864,
          "361": 0.6106555461883545,
          "362": 0.007096014451235533,
          "363": -0.7696942090988159,
          "364": 0.2768034338951111,
          "365": -0.08184898644685745,
          "366": -0.6418711543083191,
          "367": -1.317579746246338,
          "368": -0.13868355751037598,
          "369": -0.5377583503723145,
          "370": 0.1684521734714508,
          "371": -1.2558757066726685,
          "372": 0.09215070307254791,
          "373": -0.6837605237960815,
          "374": 0.27145546674728394,
          "375": 0.44569623470306396,
          "376": 0.953533411026001,
          "377": 1.707674264907837,
          "378": -2.829846143722534,
          "379": -1.0006091594696045,
          "380": 2.8998053073883057,
          "381": -0.23184899985790253,
          "382": 0.38201892375946045,
          "383": 1.7175971269607544,
          "384": 1.2248526811599731,
          "385": -2.7110962867736816,
          "386": 1.399824857711792,
          "387": -2.1666548252105713,
          "388": -1.2780345678329468,
          "389": -2.966444492340088,
          "390": 1.1134748458862305,
          "391": 1.4183167219161987,
          "392": 1.2651883363723755,
          "393": 0.772533118724823,
          "394": -0.4323590397834778,
          "395": -0.9757571220397949,
          "396": -0.4009944796562195,
          "397": 0.8685269951820374,
          "398": 1.5870345830917358,
          "399": -0.04178950563073158,
          "400": -1.2818523645401,
          "401": 0.5646241307258606,
          "402": -2.1980550289154053,
          "403": 1.8024941682815552,
          "404": 0.20916242897510529,
          "405": 2.592973232269287,
          "406": -0.5083412528038025,
          "407": -0.160008504986763,
          "408": 1.9170176982879639,
          "409": 0.3593177795410156,
          "410": -0.8281741738319397,
          "411": 0.36017051339149475,
          "412": -1.1954716444015503,
          "413": 2.6797268390655518,
          "414": 0.11987465620040894,
          "415": 1.2141832113265991,
          "416": 0.5291088819503784,
          "417": 0.3287634253501892,
          "418": -2.429588794708252,
          "419": -1.2400281429290771,
          "420": -0.4720990061759949,
          "421": -0.13064134120941162,
          "422": 0.8448439240455627,
          "423": -0.4160713851451874,
          "424": 1.038365125656128,
          "425": -0.6764312386512756,
          "426": -0.9189984798431396,
          "427": 0.10719513893127441,
          "428": 1.5185710191726685,
          "429": 1.4140337705612183,
          "430": 1.6242774724960327,
          "431": -4.026297569274902,
          "432": 1.1153277158737183,
          "433": 1.3294259309768677,
          "434": 1.1550109386444092,
          "435": -0.8007469177246094,
          "436": 0.4294421374797821,
          "437": 0.3752296566963196,
          "438": -0.9462907910346985,
          "439": -2.7191526889801025,
          "440": -2.2638325691223145,
          "441": -0.9128727316856384,
          "442": -1.0006134510040283,
          "443": 1.1329457759857178,
          "444": -1.690156102180481,
          "445": -3.4452149868011475,
          "446": -0.07795683294534683,
          "447": -0.9291016459465027,
          "448": -1.2486529350280762,
          "449": 1.9164267778396606,
          "450": -0.6216654181480408,
          "451": 0.31333234906196594,
          "452": -2.603428602218628,
          "453": 0.5298788547515869,
          "454": -0.6166154742240906,
          "455": 1.8764890432357788,
          "456": -0.7688605189323425,
          "457": -0.41846179962158203,
          "458": -0.24191215634346008,
          "459": -3.8032474517822266,
          "460": -0.4378817677497864,
          "461": -0.7318243980407715,
          "462": -0.9978252053260803,
          "463": 1.3885762691497803,
          "464": 0.6862762570381165,
          "465": 0.06289578974246979,
          "466": 2.696343183517456,
          "467": -0.09619869291782379,
          "468": 0.9770345091819763,
          "469": -1.0591288805007935,
          "470": 0.21530479192733765,
          "471": 1.8404548168182373,
          "472": -0.672746479511261,
          "473": 0.934877336025238,
          "474": -1.630557894706726,
          "475": 1.2832070589065552,
          "476": 2.1161863803863525,
          "477": 1.1087406873703003,
          "478": 2.8936426639556885,
          "479": 1.8667930364608765,
          "480": -2.156830072402954,
          "481": -0.4394719898700714,
          "482": -0.7045374512672424,
          "483": 1.5934587717056274,
          "484": -0.9609434008598328,
          "485": 0.3553116023540497,
          "486": 0.4097079038619995,
          "487": -0.7821670174598694,
          "488": 0.7711536884307861,
          "489": 0.6616492867469788,
          "490": 1.5187299251556396,
          "491": 2.4325900077819824,
          "492": 2.1238317489624023,
          "493": 1.82166588306427,
          "494": 0.11968042701482773,
          "495": 2.385561466217041,
          "496": 1.4190003871917725,
          "497": -0.33943504095077515,
          "498": 0.8017125129699707,
          "499": 0.8613151907920837,
          "500": 0.010401506908237934,
          "501": 0.2268589735031128,
          "502": -1.9098873138427734,
          "503": -0.3843473494052887,
          "504": 0.10175453871488571,
          "505": -0.7574275732040405,
          "506": 1.8415356874465942,
          "507": 1.0298552513122559,
          "508": 4.086353302001953,
          "509": -0.22356951236724854,
          "510": -0.8435907363891602,
          "511": -1.5339775085449219,
          "512": -1.136404037475586,
          "513": -1.7226284742355347,
          "514": 0.9262791872024536,
          "515": 0.17366783320903778,
          "516": 0.3458680808544159,
          "517": 0.6204134821891785,
          "518": -2.5624186992645264,
          "519": -2.0229125022888184,
          "520": 0.5825083255767822,
          "521": -0.21675406396389008,
          "522": 2.9837942123413086,
          "523": 1.2522900104522705,
          "524": -0.3586902618408203,
          "525": -0.6683372855186462,
          "526": 0.9101220369338989,
          "527": 0.8492158055305481,
          "528": -0.39342546463012695,
          "529": 0.6600786447525024,
          "530": -1.5084500312805176,
          "531": -0.41018301248550415,
          "532": 2.652801513671875,
          "533": 0.8657538294792175,
          "534": 0.27003738284111023,
          "535": -0.5319292545318604,
          "536": 1.080405831336975,
          "537": 1.6225547790527344,
          "538": 0.8796260952949524,
          "539": -0.5584253072738647,
          "540": -0.845766007900238,
          "541": 1.7190357446670532,
          "542": -0.8385845422744751,
          "543": 0.7729434370994568,
          "544": 0.9432199001312256,
          "545": -0.28396040201187134,
          "546": 2.2306623458862305,
          "547": -0.5433667302131653,
          "548": -1.2046020030975342,
          "549": 0.6848995089530945,
          "550": 0.6434447765350342,
          "551": -0.1299985945224762,
          "552": 0.5810103416442871,
          "553": -0.014411850832402706,
          "554": 0.5610263347625732,
          "555": -5.059406280517578,
          "556": -1.0818421840667725,
          "557": -1.183024287223816,
          "558": 0.7713552117347717,
          "559": 0.0797664225101471,
          "560": 1.3253830671310425,
          "561": -1.062014102935791,
          "562": -0.2603621482849121,
          "563": -1.4290435314178467,
          "564": 0.4937922954559326,
          "565": 1.4331914186477661,
          "566": -0.6714215278625488,
          "567": -0.6320021152496338,
          "568": -1.2764157056808472,
          "569": -1.4857368469238281,
          "570": -3.349825620651245,
          "571": 0.21922478079795837,
          "572": 2.435713291168213,
          "573": 2.9402828216552734,
          "574": 1.1637334823608398,
          "575": 0.971219539642334,
          "576": -0.7883028984069824,
          "577": -0.9683924913406372,
          "578": -0.9539384245872498,
          "579": -1.0600693225860596,
          "580": 0.15543749928474426,
          "581": 0.9563331007957458,
          "582": -1.4807345867156982,
          "583": -0.02251741848886013,
          "584": -1.0864819288253784,
          "585": -0.25074100494384766,
          "586": 1.3503046035766602,
          "587": 1.1295915842056274,
          "588": 0.7579560279846191,
          "589": 0.990711510181427,
          "590": -1.815718173980713,
          "591": 1.9360159635543823,
          "592": -0.9616014361381531,
          "593": 2.891869306564331,
          "594": 2.6293094158172607,
          "595": -0.2529057264328003,
          "596": -1.230237364768982,
          "597": 0.7309269309043884,
          "598": -2.5368216037750244,
          "599": 3.303846597671509,
          "600": 0.720211386680603,
          "601": 3.1063714027404785,
          "602": -0.33769360184669495,
          "603": -0.5254145264625549,
          "604": -1.6278904676437378,
          "605": 0.25417789816856384,
          "606": -0.324187308549881,
          "607": 0.12325074523687363,
          "608": 1.7418670654296875,
          "609": 0.7309535145759583,
          "610": -0.02794281207025051,
          "611": -2.2128000259399414,
          "612": -1.9642804861068726,
          "613": 1.957230806350708,
          "614": 2.496805191040039,
          "615": 3.0781068801879883,
          "616": -0.3973841667175293,
          "617": -0.1433708667755127,
          "618": -0.45430147647857666,
          "619": -0.27123042941093445
        }
      },
      "forgetHidden": {
        "rows": 20,
        "columns": 20,
        "weights": {
          "0": -3.5420613288879395,
          "1": -3.103733539581299,
          "2": 0.6452805399894714,
          "3": 0.6830580234527588,
          "4": 0.39308103919029236,
          "5": -1.5698856115341187,
          "6": 1.3474501371383667,
          "7": 2.2330310344696045,
          "8": -1.9346429109573364,
          "9": 1.7790274620056152,
          "10": 1.9902878999710083,
          "11": 2.4459168910980225,
          "12": 2.179170608520508,
          "13": -0.9609249830245972,
          "14": 1.8608888387680054,
          "15": -2.4393198490142822,
          "16": 0.900183379650116,
          "17": -0.2801055610179901,
          "18": -1.323211669921875,
          "19": -0.9647145867347717,
          "20": 3.2056381702423096,
          "21": -2.053966999053955,
          "22": 1.0234761238098145,
          "23": -0.37121281027793884,
          "24": 0.9123046398162842,
          "25": 0.898745596408844,
          "26": -1.3529294729232788,
          "27": -0.18829622864723206,
          "28": -0.9939702749252319,
          "29": 0.2887035012245178,
          "30": 0.9165802001953125,
          "31": -1.4901089668273926,
          "32": 0.4740722179412842,
          "33": -2.0182981491088867,
          "34": -1.0598243474960327,
          "35": 0.30834925174713135,
          "36": -3.7394328117370605,
          "37": -1.0965256690979004,
          "38": 0.4620327651500702,
          "39": 1.245550274848938,
          "40": -1.050130844116211,
          "41": 1.5433276891708374,
          "42": 0.49952515959739685,
          "43": 1.7110421657562256,
          "44": -1.5748412609100342,
          "45": -1.1354122161865234,
          "46": 0.6015908718109131,
          "47": -0.09624315053224564,
          "48": -1.0264285802841187,
          "49": -2.1738786697387695,
          "50": 0.20722196996212006,
          "51": -1.4265962839126587,
          "52": -1.7747136354446411,
